{
  "centroids": [
    [
      0.6568602207930354,
      0.4494308493896862,
      0.551622628553693,
      0.014737587829615846,
      0.7516344920595512,
      0.2422489295555429,
      0.07345735310613796,
      0.0,
      0.3023771459769056,
      0.5873276052355549,
      0.9837354712590524
    ],
    [
      0.6569936867885131,
      0.4494446029889438,
      0.5508123104001726,
      0.014695489133979542,
      0.7517886554458477,
      0.24224904982400847,
      0.07334026519879984,
      0.0,
      0.30232583220223785,
      0.5876788705218589,
      0.9837888413258882
    ],
    [
      0.6569119769374161,
      0.4494361889528239,
      0.5513083246118935,
      0.014721247109437511,
      0.751694304938216,
      0.24224897500691941,
      0.07341192645915946,
      0.0,
      0.30235725096390137,
      0.5874638781080994,
      0.9837561882077774
    ],
    [
      0.6572917346220803,
      0.44947513161233427,
      0.5490050453754924,
      0.01460194626391919,
      0.7521319913951983,
      0.24224935464738584,
      0.07307945348805583,
      0.0,
      0.30221112954762064,
      0.5884615539796404,
      0.9839073923250637
    ]
  ],
  "selected_K": 4,
  "inertia_by_K": {
    "2": 172.1883173758102,
    "3": 172.11124578750938,
    "4": 172.07028724578996,
    "5": 172.09488576232687,
    "6": 172.13998203511602,
    "7": 172.07601220774575,
    "8": 172.07015675958348
  },
  "satisfaction_weights": {
    "weights": [
      0.00024259702619654905,
      2.6658043080852092e-05,
      -1.654491411322249e-05
    ],
    "bias": 0.24985837032626868,
    "best_state": 1,
    "r2": 0.90088907915964
  },
  "curiosity_model": {
    "weights": [
      0.0003432507917133789,
      -0.00011302324819248144,
      -0.0028236578916348972,
      6.354543633696888e-05,
      0.0006040103658829244,
      -0.0002777067789138987,
      -0.00025623228332406376,
      0.0,
      -4.94969282088623e-05,
      0.0012271876613770504,
      0.00026473364836563995
    ],
    "bias": 0.2500404207820589,
    "best_state": 3,
    "r2": 0.9994049221858604,
    "corr": -0.06652916123619444
  },
  "boredom_model": {
    "weights": [
      -0.00018971262363506463,
      6.200638088687077e-05,
      0.0015698375927588428,
      -3.4417824125827456e-05,
      -0.0003359241973950086,
      0.00015469308548983143,
      0.0001439191016167021,
      0.0,
      2.7305939364038886e-05,
      -0.0006833698095941018,
      -0.0001479779635669572
    ],
    "bias": 0.2499784729310872,
    "best_state": 0,
    "r2": 0.9994207755121233,
    "corr": -0.5237442705612981
  },
  "fatigue_model": {
    "weights": [
      -0.00012673128180685388,
      4.17252312976299e-05,
      0.0010428857062217188,
      -2.3306558854208654e-05,
      -0.00022305074096272984,
      0.00010259665399016123,
      9.470869256906154e-05,
      0.0,
      1.8279161609809308e-05,
      -0.00045327831793002426,
      -9.765751053274057e-05
    ],
    "bias": 0.2499849088056976,
    "best_state": 2,
    "r2": 0.9994056804491267,
    "corr": 0.18335654248228367
  },
  "axes_pairwise_corr": {
    "curiosity_learned__curiosity_learned": 0.9999999999999998,
    "curiosity_learned__boredom_learned": -5.706107807409397e-11,
    "curiosity_learned__satisfaction_learned": -2.1326039429457026e-11,
    "curiosity_learned__fatigue_learned": -1.0125765102295232e-09,
    "boredom_learned__curiosity_learned": -5.706107807409397e-11,
    "boredom_learned__boredom_learned": 1.0,
    "boredom_learned__satisfaction_learned": -4.681434733778888e-08,
    "boredom_learned__fatigue_learned": 8.455545453959932e-08,
    "satisfaction_learned__curiosity_learned": -2.1326039429457026e-11,
    "satisfaction_learned__boredom_learned": -4.6814347337788884e-08,
    "satisfaction_learned__satisfaction_learned": 0.9999999999999998,
    "satisfaction_learned__fatigue_learned": 4.705086994152989e-14,
    "fatigue_learned__curiosity_learned": -1.0125765102295232e-09,
    "fatigue_learned__boredom_learned": 8.455545453959932e-08,
    "fatigue_learned__satisfaction_learned": 4.705086994152989e-14,
    "fatigue_learned__fatigue_learned": 1.0
  }
}